#include "demo_data.h"

const int32_t conv_output_multiplier[2] = {
    1139554406,
    1217488577
};
const int8_t conv_output_shift[2] = {
    8,
    8
};

const int32_t 	dense_output_multiplier = 1169565495;
const int8_t 	dense_output_shift = 10;

const int model_input_dims[] = {28, 28, 1};

const int8_t model_input_data[] = {
	-128, -128, -128, -128, -128, -128, -128, -128, -128, -128, -128, -128, -128, -128, -128, -128, -128, -128, -128, -128, -128, -128, -128, -128, -128, -128, -128, -128, 
	-128, -128, -128, -128, -128, -128, -128, -128, -128, -128, -128, -128, -128, -128, -128, -128, -128, -128, -128, -128, -128, -128, -128, -128, -128, -128, -128, -128, 
	-128, -128, -128, -128, -128, -128, -128, -128, -128, -128, -128, -128, -128, -128, -128, -128, -128, -128, -128, -128, -128, -128, -128, -128, -128, -128, -128, -128, 
	-128, -128, -128, -128, -128, -128, -128, -128, -128, -128, -128, -128, -128, -128, -128, -128, -128, -128, -128, -128, -128, -128, -128, -128, -128, -128, -128, -128, 
	-128, -128, -128, -128, -128, -128, -128, -128, -128, -128, -128, -128, -128, -128, -128, -128, -128, -128, -128, -128, -128, -128, -128, -128, -128, -128, -128, -128, 
	-128, -128, -128, -128, -128, -128, -128, -128, -128, -128, -128, -128, -128, -128, -128, -128, -128, -128, -128, -128, -128, -128, -128, -128, -128, -128, -128, -128, 
	-128, -128, -128, -128, -128, -128, -128, -128, -128, -128, -128, -128, -128, -128, -128, -128, -128, -128, -128, -128, -128, -128, -128, -128, -128, -128, -128, -128, 
	-128, -128, -128, -128, -128, -128, -44, 56, 30, 22, -68, -92, -128, -128, -128, -128, -128, -128, -128, -128, -128, -128, -128, -128, -128, -128, -128, -128, 
	-128, -128, -128, -128, -128, -128, 93, 125, 125, 125, 125, 112, 69, 69, 69, 69, 69, 69, 69, 69, 41, -76, -128, -128, -128, -128, -128, -128, 
	-128, -128, -128, -128, -128, -128, -61, -14, -56, -14, 34, 98, 125, 96, 125, 125, 125, 121, 100, 125, 125, 11, -128, -128, -128, -128, -128, -128, 
	-128, -128, -128, -128, -128, -128, -128, -128, -128, -128, -128, -111, -62, -114, -61, -61, -61, -69, -107, 107, 125, -22, -128, -128, -128, -128, -128, -128, 
	-128, -128, -128, -128, -128, -128, -128, -128, -128, -128, -128, -128, -128, -128, -128, -128, -128, -128, -45, 124, 80, -110, -128, -128, -128, -128, -128, -128, 
	-128, -128, -128, -128, -128, -128, -128, -128, -128, -128, -128, -128, -128, -128, -128, -128, -128, -106, 104, 126, -45, -128, -128, -128, -128, -128, -128, -128, 
	-128, -128, -128, -128, -128, -128, -128, -128, -128, -128, -128, -128, -128, -128, -128, -128, -128, 0, 125, 109, -84, -128, -128, -128, -128, -128, -128, -128, 
	-128, -128, -128, -128, -128, -128, -128, -128, -128, -128, -128, -128, -128, -128, -128, -128, -69, 120, 125, -66, -128, -128, -128, -128, -128, -128, -128, -128, 
	-128, -128, -128, -128, -128, -128, -128, -128, -128, -128, -128, -128, -128, -128, -128, -128, 4, 125, 58, -123, -128, -128, -128, -128, -128, -128, -128, -128, 
	-128, -128, -128, -128, -128, -128, -128, -128, -128, -128, -128, -128, -128, -128, -128, -119, 76, 119, -70, -128, -128, -128, -128, -128, -128, -128, -128, -128, 
	-128, -128, -128, -128, -128, -128, -128, -128, -128, -128, -128, -128, -128, -128, -128, -2, 125, 53, -128, -128, -128, -128, -128, -128, -128, -128, -128, -128, 
	-128, -128, -128, -128, -128, -128, -128, -128, -128, -128, -128, -128, -128, -128, -53, 122, 111, -71, -128, -128, -128, -128, -128, -128, -128, -128, -128, -128, 
	-128, -128, -128, -128, -128, -128, -128, -128, -128, -128, -128, -128, -128, -109, 92, 125, 37, -128, -128, -128, -128, -128, -128, -128, -128, -128, -128, -128, 
	-128, -128, -128, -128, -128, -128, -128, -128, -128, -128, -128, -128, -125, 74, 125, 90, -93, -128, -128, -128, -128, -128, -128, -128, -128, -128, -128, -128, 
	-128, -128, -128, -128, -128, -128, -128, -128, -128, -128, -128, -128, -90, 125, 125, -51, -128, -128, -128, -128, -128, -128, -128, -128, -128, -128, -128, -128, 
	-128, -128, -128, -128, -128, -128, -128, -128, -128, -128, -128, -97, 95, 125, -13, -127, -128, -128, -128, -128, -128, -128, -128, -128, -128, -128, -128, -128, 
	-128, -128, -128, -128, -128, -128, -128, -128, -128, -128, -128, 4, 125, 125, -76, -128, -128, -128, -128, -128, -128, -128, -128, -128, -128, -128, -128, -128, 
	-128, -128, -128, -128, -128, -128, -128, -128, -128, -128, -67, 113, 125, 125, -76, -128, -128, -128, -128, -128, -128, -128, -128, -128, -128, -128, -128, -128, 
	-128, -128, -128, -128, -128, -128, -128, -128, -128, -128, -7, 125, 125, 90, -88, -128, -128, -128, -128, -128, -128, -128, -128, -128, -128, -128, -128, -128, 
	-128, -128, -128, -128, -128, -128, -128, -128, -128, -128, -7, 125, 78, -110, -128, -128, -128, -128, -128, -128, -128, -128, -128, -128, -128, -128, -128, -128, 
	-128, -128, -128, -128, -128, -128, -128, -128, -128, -128, -128, -128, -128, -128, -128, -128, -128, -128, -128, -128, -128, -128, -128, -128, -128, -128, -128, -128,
};

const int conv_bias_dims[] = {2};
const int32_t conv_bias_data[] = {
	-66814, 44581
};

const int conv_weight_dims[] = {3, 3, 1, 2};
const int8_t conv_weight_data[] = {
	-101, 105, -39, 108, 122, -127, 86, -50, -26, 
	67, 88, 121, -99, 13, -127, -99, 7, -94
};

const int dense_weight_dims[] = {10, 338};
const int8_t dense_weight_data[] = {
	-73, -85, 105, -70, 88, 19, 67, -124, 24, 86, -36, -38, 94, -61, 69, 66, -84, 54, -77, -94, -87, -6, -31, 33, -1, 94, 69, -55, 11, -91, 34, 50, 47, -79, -118, -5, -25, 15, -4, 36, 35, 55, 94, -66, 22, 26, -22, -118, 103, 97, 112, 5, -117, -54, 0, 107, 121, -56, -74, -39, 36, -42, 100, -85, 46, 19, 86, 105, 55, 42, -122, -16, 37, 6, 0, 77, 13, 72, 22, -123, -37, -127, 38, 36, 51, -36, 96, -96, 112, 127, 75, -14, 10, 124, -13, -47, 12, 104, 108, -2, -56, 84, 121, 77, -62, -34, 6, 56, 74, -41, 122, 108, -14, 51, -50, -108, 10, 67, 61, -126, 97, 112, -41, 21, 3, 34, -78, -123, -28, 33, 30, 65, -78, -86, -96, 88, -13, 81, -8, -83, 57, -4, 11, -81, 104, -53, 102, -78, -44, -75, -47, -2, -16, -2, -1, -9, 77, 85, -74, 57, -11, 20, 101, 0, 75, -38, 46, 4, -119, 
	-92, -84, 30, -31, -34, -34, -8, 123, 55, -115, -52, -46, -84, -65, 10, -62, -89, 49, 14, -118, -117, -52, -13, -106, -37, -87, 107, 85, -13, 124, 113, -109, 51, 34, -34, -40, 25, 11, -64, 39, -7, -43, -98, 99, 35, -39, 33, -94, -104, -60, -52, 47, 38, -107, -78, 116, -83, 122, 14, 47, -67, -92, 73, -121, -34, -29, 121, 123, -66, 94, -15, -108, 86, -93, -9, -51, -108, 59, 22, 5, 104, 69, 108, -58, -42, -14, -96, 76, 92, 95, 83, -95, 71, 12, -10, 79, -29, 37, 72, -92, -26, 100, -104, 21, 44, 117, -25, 66, -38, -24, 18, -38, 123, -30, 72, 61, 105, 122, 126, 123, 16, 4, 76, 52, -107, 53, 92, 67, -117, -1, -30, 114, 80, 19, 86, 81, -70, -95, 111, 85, 89, 80, 44, -67, 49, -79, -6, -93, -91, 98, 71, 58, -96, -88, 76, 73, 70, -42, 45, 111, -78, -72, -33, 29, -112, -58, 61, 65, -33, 
	52, 126, 106, 48, 72, 11, 71, -10, 7, 119, 18, 78, 120, 0, -12, -89, -124, 47, -85, -72, 48, -102, 70, 49, -62, 112, 93, -69, -19, 54, 126, 82, 33, 99, -34, -19, 119, 30, 98, 41, 14, -26, 12, 83, 126, -62, 105, 111, 112, 26, -76, 54, -27, -20, 61, 36, 53, -52, -30, -47, 39, -13, 3, 16, -72, 47, 102, -120, 12, -86, -90, 20, -63, -116, -35, 20, 99, -21, -49, 99, 84, 119, 90, 63, -91, 67, 12, -89, 101, -57, -72, 108, -54, -87, 9, 6, 104, -23, 67, -21, -107, 123, 67, -79, 57, -42, 104, -51, 79, -17, 104, -22, 12, 81, 123, -54, -99, -5, 7, -1, 81, 108, -62, 54, 25, 24, -83, 21, -65, 84, 25, -10, 38, 24, 27, -27, 37, -2, -96, -125, -82, 84, -112, -57, -74, -83, 68, -65, -123, 119, 49, -8, -89, -110, -74, 34, 65, -58, -124, 7, -48, 105, 25, 2, 117, -2, -47, 54, 38, 
	-99, -23, -15, 50, -83, 59, 1, 100, 101, 103, 1, 0, -60, 39, -49, -70, 41, -111, 54, 118, 80, -83, 125, -112, 25, 36, 107, 66, -15, 17, -61, 93, 56, -31, 83, 126, -3, -44, 108, -70, 21, 14, 2, 105, -113, 125, 72, -21, -98, 87, 112, -40, -97, 18, -30, -46, 99, 99, 83, -62, -3, 54, 43, 8, 17, -122, -39, 0, 83, 89, 22, 55, 3, 6, -116, 89, -87, -32, -115, 69, 19, 55, -125, 76, 9, 52, 88, 73, 68, 3, -2, -115, 84, 51, 29, 64, 79, -34, 94, 86, -38, 54, -7, -105, 9, 118, 84, -92, 44, 57, 108, 124, -68, -90, -101, 107, -120, -102, -98, 104, 124, -95, 13, -16, 94, 68, -35, 95, 112, 84, 28, -118, 87, 49, -57, -107, -89, 56, 0, -74, -11, -55, 117, -20, -117, 94, 116, -21, -44, -11, -109, 63, -45, -84, -9, 41, -54, 56, -105, -100, -2, -51, -99, -12, 34, 100, 111, -31, 94, 
	76, -22, -56, 102, -90, -58, -125, 57, -86, -18, -96, 65, -80, 66, 75, -110, -125, -8, -23, 51, -38, 69, -6, 1, -126, -65, -2, -43, 85, -28, 115, -1, -91, 3, -18, -8, -122, 39, 13, 11, -34, 118, 0, 86, 51, -16, -119, 124, 110, 65, -73, -118, -16, -119, 126, -98, -12, -115, -94, 106, 86, -127, -81, 39, -102, 99, -40, 126, -10, 90, -35, -76, -96, -77, -67, 27, 123, -66, 94, 13, -98, 115, -29, 49, -79, 123, -80, 100, 87, 17, -76, -1, -7, -121, -18, -45, -29, 93, -67, 20, 28, -87, -79, 124, -79, 6, -111, -66, -27, -108, -82, 5, -102, -87, -109, 28, 32, 20, -112, -95, 87, 66, -119, -99, -93, 71, 24, 124, 57, 100, -64, 80, 33, -48, -124, 73, 112, -48, -93, -48, 82, 115, -25, -46, 61, 65, 99, 63, -69, 10, -86, 117, -82, 60, -45, -21, -77, -3, 29, 68, -80, 19, -40, -54, 12, -65, 117, -41, -60, 
	63, -121, 68, 51, 19, -6, 1, 16, -84, 66, 121, -115, 50, -57, -19, -111, 64, -119, -88, -88, 66, 38, -91, 18, -5, 106, -62, 56, -57, 27, 36, 40, -2, -13, 14, -90, -70, 52, -121, 47, 120, -8, 61, 9, -87, -54, -72, -62, -116, 34, 22, 114, -74, 11, -117, -18, -38, 73, -34, -112, 32, -107, 39, 16, -38, -66, -118, 20, -82, -83, 96, 88, 91, 59, -79, 113, -28, -56, 97, -70, -74, -75, -24, 33, 87, 37, -27, -112, -49, -56, 108, 62, 17, -2, -16, 75, 50, 29, 98, 127, -48, -6, -99, -109, 55, 85, 96, 72, -22, -118, 33, -33, 44, 94, 32, -100, 15, -13, -49, 32, 120, -27, -108, -104, 24, -124, -22, -76, -120, 60, -52, -80, 127, 18, 99, -97, 93, 77, 63, 102, 47, -5, 35, 3, -90, -16, -87, 108, 92, 36, -109, 22, 90, -124, -27, -69, 36, -15, 82, -97, -102, 119, 60, 77, 58, 73, 58, -100, -15, 
	69, -76, 125, -119, 26, 59, 123, -31, 108, -52, -101, -74, 6, -68, -116, -51, 102, 69, -123, -31, -11, -27, -10, -51, -32, 42, -81, -8, 93, 66, -60, -11, 60, -121, -24, -40, -120, -114, -80, -74, 19, 17, -77, -114, -108, -88, 123, -35, -84, -106, -113, 57, 78, 107, 49, 39, -99, -18, 86, 52, -45, 87, 62, 34, 121, 24, 120, 51, 39, 18, -53, 83, -36, -98, -61, -99, -6, 0, 121, 73, -49, 24, 19, 87, 54, 109, -5, -68, -101, 6, -53, 84, 58, 69, -52, -117, -17, 111, 109, -60, -21, -43, 29, -56, 106, 123, -5, 124, 67, 42, -17, -13, 24, 126, -113, 61, -24, 31, -16, -60, 54, 71, -52, 2, -67, 120, -94, -61, -81, 26, 123, 55, 124, 46, -64, -59, -86, 1, 73, 80, -27, 35, -79, 20, -94, 88, 85, 121, 63, 80, -12, 9, -14, -115, 53, -68, 37, -98, 9, 79, -98, 1, -6, -88, -105, -125, -13, -91, -58, 
	-77, 56, -116, -26, 1, -88, -20, -111, 52, 29, -75, -91, -117, -79, -34, 32, -88, -43, 126, -92, -63, 23, -46, 27, 67, -125, 95, 19, -4, 117, -25, -84, 83, 90, 47, 125, -36, 67, 110, -105, 26, -98, 100, 108, 48, -113, 33, -110, 3, -91, 40, 119, -37, 73, -78, -65, 50, -100, -82, 33, 39, 50, -25, -6, -32, 37, 81, -33, 91, 126, 11, 6, -63, 47, -83, -121, 49, 100, 81, 107, 15, -68, -110, -45, 21, -4, 124, 57, 0, 34, -121, 61, 45, -22, 32, -48, -123, 51, -63, -21, 94, -122, 73, -45, -114, -86, 68, -29, -93, 16, -11, 124, -72, -109, 84, 44, 115, -125, 18, -96, -5, -87, 89, 78, 60, 17, 3, -125, -93, -72, 67, -31, 12, 79, -57, 121, -12, -62, 79, -61, -56, -39, -70, -37, 100, -24, -19, -14, 83, -40, 26, -122, -125, 119, -36, 124, -104, -126, 17, -4, 22, -40, 16, 68, 93, -115, 91, -55, -66, 
	-28, 56, 104, 63, 48, 5, 67, 84, -125, 42, 39, 91, 34, -75, -73, -46, 86, 8, 11, 80, 124, -28, 57, 22, 87, 14, 77, -80, 44, -5, -72, 91, 79, 51, 89, -98, 28, -41, -18, -104, 31, 4, -100, -72, 126, -40, -68, -115, -64, -87, -6, -112, -21, -4, 12, -10, 100, -112, -66, 57, 23, -1, 125, -45, -99, 61, 95, -20, -2, 51, -2, 10, 32, -101, 30, 36, 69, -73, 9, -45, -18, 1, -122, -87, -2, -36, 101, -29, 109, -68, -35, 38, -118, -85, 72, -120, -18, -3, -28, 97, 45, 126, -107, 91, 53, 17, -68, -51, 121, 82, -77, -57, 9, -58, 95, -46, -35, 53, -95, -125, -96, -109, -28, 2, 28, 40, -77, 17, 29, 76, 97, -81, 6, -4, -120, 63, 126, -112, 96, 62, -97, 78, -124, 0, 119, -30, 9, 94, 14, -38, -118, 79, -106, -80, 4, 114, -20, 19, -88, 98, -5, 46, 10, -102, -85, 7, 27, 43, -30, 
	-36, -66, 7, 16, -65, -6, -77, 101, 62, 95, -20, 13, -76, -88, -113, 74, 20, 90, 91, -101, -27, 41, 55, 77, 5, -118, -37, -109, -94, -1, 30, -30, 83, -122, -122, 37, 10, 15, 121, 9, -38, 15, 10, -55, -90, 28, -69, -85, 6, 31, -42, -81, 118, -41, -56, 4, 120, 86, -110, 32, 10, 5, 93, 116, 6, -23, -95, 87, 45, 92, -85, -4, 94, 13, -9, 44, -127, -32, -95, -117, 57, -83, 4, 60, -34, 120, -111, -4, 126, -4, 41, 115, 9, -100, 99, -41, 51, 76, -54, 27, 50, 104, -29, -107, 37, -82, -110, 111, 116, -20, -86, -69, 12, 80, -83, 38, 24, -35, -79, 119, 69, -2, 102, 64, 80, 6, -40, 41, -49, 112, 64, 112, -85, 40, 44, 28, -32, 49, -95, 54, -11, -25, -61, 81, 117, -52, 40, 29, 75, 118, -11, 110, -5, -123, 55, 4, 46, -91, -59, 78, 3, -27, -52, -51, 25, 19, -15, 84, 79, 
	94, -109, 90, 76, -11, -92, -112, 32, 28, 62, 19, -51, -123, 65, 15, -111, -67, 101, 2, -112, -35, 23, 6, 28, 16, 41, -120, 78, -10, 96, 63, -56, 37, -125, 105, 108, 118, 83, -40, -108, 88, 44, -66, -47, 85, -29, 55, 85, 68, 67, -10, -59, -111, -93, -95, 53, -43, 100, 65, 45, -64, -7, 46, 118, -16, 29, -37, -89, -86, -93, 14, -24, 9, 53, 59, 27, 78, 57, 121, 94, 102, 12, 43, 46, 70, -64, -122, 38, 32, -53, 45, -83, -118, 27, -116, 38, -3, 120, -93, -79, -59, 55, -23, -104, 63, 79, -47, -56, -99, 117, 100, 119, 49, -3, -32, 44, -120, -74, -82, -104, -124, -25, -58, -43, -88, 42, -109, 115, -123, 28, -18, 17, -77, -65, 110, 96, 82, 14, 93, -82, -57, 87, -43, 52, -99, -19, -124, -121, 113, 68, -88, -93, 4, -18, -75, -82, 39, -68, 110, -110, 28, 101, -20, 35, 47, -80, -63, -4, -19, 
	5, 22, -120, -29, 109, -78, -98, 16, 101, 69, 68, 93, -66, 94, 104, 10, -5, 10, 122, 36, 17, 100, -89, -36, 57, -91, -100, -90, -61, 107, -78, -103, -67, -105, 58, 62, 72, 2, 49, 55, 0, -36, -91, -63, -66, -87, -81, 100, -119, 49, -44, 69, 105, 11, 76, 87, 55, -57, 64, 121, 8, 17, -104, 111, -103, 3, -24, 89, -98, 89, -50, -110, 73, 2, 51, 12, 0, -13, 24, 83, 121, 62, -73, 24, 35, -119, 67, -5, 127, -66, -122, -114, -124, 111, -112, -92, 6, -11, 63, 75, -60, 87, 66, 114, 13, 9, 92, 54, -49, 102, -70, -22, -112, -15, 4, -104, 109, 62, 2, 5, -100, -117, 102, 44, -115, 20, -101, -49, -80, 109, 22, -92, 36, 113, 87, 107, -29, 34, -104, 55, 22, -2, 49, 116, 39, -57, 77, -82, -74, 85, 67, -78, -124, -63, -115, 60, 50, 58, -70, -72, -22, 99, -21, -71, 117, 64, -115, 63, 106, 
	78, -55, 94, -88, -86, -44, 105, 39, -62, -46, 124, -81, 100, -108, -91, 53, -90, -106, -125, -95, 109, 5, -37, -22, -56, -63, 26, 66, 57, 83, 65, -23, 6, -29, -102, 65, -44, -88, -53, -118, 26, 85, 101, -118, -1, -1, 21, -63, -99, 6, 79, 49, -8, -65, 0, 93, -111, 115, -44, 65, -90, 103, -61, -39, -119, 104, -89, 93, -29, -35, -54, -9, 107, -67, 114, 123, -32, -56, 29, -42, 38, 48, 61, 115, -49, -19, 62, 19, 34, -33, 58, -117, -59, -123, -109, 99, 7, 50, 118, 124, -110, -84, 55, 60, -42, -62, -108, -73, 9, 27, 32, 83, -1, 6, 96, -22, 53, -94, -19, 7, 8, 123, 76, -77, 104, -62, -43, 105, 108, 86, 50, 100, 80, -127, 93, 83, 104, 27, 43, -123, 95, -66, -97, 101, -10, 96, -18, 51, 21, -26, 67, -74, 18, 57, -2, -19, 88, 63, 34, -70, -75, 41, -48, -28, 43, -2, -45, -60, -20, 
	-19, 12, -24, -111, 94, 35, 115, -113, 8, 47, 39, 73, 28, -42, -105, 104, -8, -56, -64, -50, 82, -49, 90, 54, -91, -33, 114, -100, -32, 54, 123, 67, 71, -97, -69, -119, 86, 47, 55, -82, -60, 120, -96, -118, -82, 58, 11, 14, 96, 106, -49, 11, -95, -61, -8, -82, -74, 118, -37, -122, 119, -86, 23, 94, 15, -87, -95, 86, 61, 102, 127, 85, 102, -14, 105, 50, -10, -40, -55, -96, 10, -120, 96, 64, 33, -87, -3, 37, -56, -99, -63, -53, 56, 125, 64, 54, 30, -8, -54, 99, 120, 27, 25, 71, -59, 92, 118, 80, 55, 20, -28, -24, -37, -95, 28, 69, 28, -96, -28, 79, -120, -77, -102, -108, -76, -56, 7, 34, 58, -54, 78, 115, 17, 52, 104, -66, -38, -80, 112, -90, 74, -112, -25, -78, -25, -45, 79, 117, 101, -108, -118, -63, -102, 74, 100, -106, 88, -33, 3, 48, -107, 39, 91, 84, -46, -15, 61, -94, 107, 
	-77, -78, -19, 51, 95, -1, 120, 62, 0, 19, -67, -44, 47, -62, -31, 59, -5, -57, 125, -121, -45, -22, 58, 96, 82, 29, 95, 84, -23, -90, -126, -105, 86, 79, -109, -126, -11, -79, -32, -26, 104, -115, 92, -4, 7, 17, 39, -82, 56, 70, -30, -4, -61, 91, 32, -59, 88, -83, -112, 79, -63, 110, -111, 58, 2, -91, -75, -93, 48, 46, -90, 8, -53, 74, 15, 6, 53, 9, 76, 89, -84, 95, -71, -76, -90, 67, 97, 19, -106, -92, 37, 48, 93, 123, 105, -116, -61, -11, -46, -29, 97, 111, 24, -38, -116, 10, 65, 10, 20, 92, 80, -120, 69, 82, -28, -91, 52, 40, -51, 32, -71, -92, 52, -19, 99, -90, -116, -18, -20, -88, 18, -77, 31, -50, -123, 43, 80, -83, -99, 55, -84, -101, 33, 95, 0, -77, -30, 34, -100, 24, -92, 44, -56, 40, 88, -88, 31, 86, 75, 83, -120, 119, 46, 15, 98, 43, 119, 94, 45, 
	-73, -74, -23, 49, -10, -68, 117, -36, -9, -86, 40, -115, 119, 57, -38, -37, 114, -79, 16, 66, 88, -5, 54, -48, -92, 48, 37, 84, 98, -85, -65, -72, -56, -58, -71, 100, -93, -63, -99, 14, -96, -48, -16, 6, 22, 25, 28, 12, -2, -56, -90, -104, -120, 74, -64, -53, 100, 127, 119, -113, -100, 16, -74, -5, -16, -120, -58, -19, -14, 32, 42, -79, -43, 95, -22, -15, -115, -40, 11, -50, -40, -11, 122, -36, -37, 4, 80, 56, 90, -1, -35, -124, 95, -26, -24, -15, -120, 66, -6, 27, -120, 78, 98, 80, -46, -19, 73, -103, 81, -29, -18, 38, 17, -40, 7, 13, 117, -98, -60, -127, -75, 73, 38, -76, -48, 119, 75, -111, -88, 81, 115, 55, 4, 95, 43, -95, 97, -105, 2, -3, 105, 86, -71, -106, 12, 106, -13, 63, -5, -16, -39, -122, -17, 85, 3, -68, 9, 123, 49, -72, 109, -114, 124, 11, 99, 95, 18, 126, 43, 
	89, -115, -31, -33, 22, -34, -37, 8, -23, -96, -87, -123, -69, -7, 10, 24, -73, 102, 53, 90, -84, -23, 13, 83, 104, -30, 113, 108, -124, 82, 93, 110, 48, -26, 15, -74, -81, 55, -58, -98, -1, 33, -85, 99, -76, -79, 52, 10, -38, -81, -27, -33, 24, 55, -81, -30, -95, -12, 8, 91, 106, 6, -74, -57, 98, -63, -63, 90, -79, 32, -87, 103, 48, 32, 11, -14, 21, 16, 106, 115, 67, -111, 10, -7, -80, 94, 91, -54, 11, 43, -1, 96, -113, -35, -37, -126, 45, 92, 41, -84, 79, -84, -64, -119, 117, 74, -85, 14, -25, 32, -55, -55, -57, 8, -20, -99, -56, 13, 51, -107, -91, -73, -98, 12, -26, 4, 28, 9, -26, 34, -107, -53, -39, 38, -71, -8, -43, -102, -42, 101, 41, -80, 117, 7, -107, 60, -121, 13, -124, -83, 54, 18, -103, 109, -57, 50, -97, -89, -126, -57, 73, -35, 58, 35, 70, 77, -116, 108, -1, 
	-72, -117, 53, -8, 43, -84, 81, 21, 42, 44, 4, 37, 83, -6, 104, -17, -20, -111, 58, 89, -120, 0, 103, 109, 109, 28, -81, 73, 102, -46, 41, 108, 39, -126, 27, -121, -85, -91, 35, 4, -65, 61, -109, 40, 100, -10, -55, 86, -12, 126, -70, 62, 120, 0, -110, 34, -112, -115, 95, -54, 89, -68, 29, 68, -73, -20, -4, -109, -17, 100, 104, -62, 125, 31, -83, 6, -46, -1, -6, -54, 89, -49, 88, -27, 20, 105, -54, -38, -103, -20, -68, 19, -92, 3, 84, -39, -121, -43, 5, -27, 21, 67, -102, 5, 5, -8, -124, -54, -96, 29, -116, 69, -68, -42, 50, -110, 86, -35, -105, -15, 122, 68, 30, -35, 13, -12, 32, 98, 71, 110, -67, -24, -34, 26, 120, -15, 74, -95, -18, 31, -13, 31, 47, -82, -59, 30, -118, 95, -96, -100, 97, -61, 31, 31, 36, -98, -5, -103, 108, -83, -72, -46, 47, -111, -27, -51, 88, -86, 30, 
	10, 46, -108, -101, -77, -59, 126, -75, 24, -78, -67, 120, -110, 35, -78, -105, 10, -44, -61, 104, -99, -67, -22, -5, 75, -107, 76, -69, -120, -68, 121, -102, -81, -121, -41, -27, -104, 107, 56, 80, 34, 123, 24, 84, -107, 7, -77, 23, -117, -56, 120, -22, -57, -48, -89, 19, -21, 27, -39, 70, -98, 41, 86, 108, -66, -49, 59, -61, -89, 34, 25, -108, 40, 119, 111, 37, -44, -38, -68, 63, 71, 43, 13, 14, 127, -115, 122, -53, -61, -20, 42, -116, -97, 110, -68, 64, 114, 88, 65, 49, -15, -73, -61, -127, 91, 7, -4, 32, -57, 21, 106, 101, 13, 18, -100, -50, -115, 42, -83, -86, -64, -54, -80, -25, -20, -84, 4, -85, 81, -82, 124, -84, -14, -101, 8, 43, -32, 124, 8, -99, -7, -65, 46, 72, -15, -67, -7, 42, -89, -109, 63, -100, -102, 28, 114, 1, -77, -21, 13, 42, 108, 65, 92, -53, -80, 95, 32, -91, 31, 
	-87, 28, 92, 92, 71, -13, 70, -31, -92, 38, -123, 107, -54, 87, 23, -19, -27, 10, 105, -22, -49, -10, -36, -73, 113, -91, -123, 111, 89, -125, 27, -41, -47, -21, 67, 126, -1, -13, -18, -80, 2, -9, 37, -1, 76, -118, -87, 89, 104, -80, -111, -65, 1, -20, -111, -11, -57, 110, -56, -4, 102, 7, -61, 73, -74, 124, 23, -68, -6, 61, -8, 35, -42, 101, -103, 15, -89, -71, 69, -49, -98, -67, 101, -94, -74, 111, 74, 91, 112, -33, -43, 93, 89, 125, -57, 6, 4, 18, -5, 37, -56, 80, 98, -51, 80, 46, -54, -101, -118, 62, -60, -72, -86, 14, -45, 87, -27, 45, -48, -109, -110, -117, -111, -91, 98, -90, 73, 95, -110, 10, 77, -63, -3, -83, -60, 95, 4, -125, -17, 57, -21, 11, -3, 17, -31, -12, 44, 27, -69, 0, -103, -18, -110, -3, -38, -42, -65, 116, -66, -52, -68, 33, -116, -96, 71, -43, 108, 40, 19
};

const int dense_bias_dims[] = {10};
const int32_t dense_bias_data[] = {
	-59908, 42707, 62205, 56136, -23096, 76777, 63889, -62826, 72405, 8329
};

